# example:1_6.3.2 
# example:1 : Memorization methods : Building models using many variables : Using decision trees 
> print(tmodel)
n= 40518

node), split, n, deviance, yval
      * denotes terminal node

 1) root 40518 2769.3550 0.07379436
   2) predVar126< 0.07366888 18188  726.4097 0.04167583
     4) predVar126< 0.04391312 8804  189.7251 0.02203544 *
     5) predVar126>=0.04391312 9384  530.1023 0.06010230
      10) predVar189< 0.08449448 8317  410.4571 0.05206204 *
      11) predVar189>=0.08449448 1067  114.9166 0.12277410 *
   3) predVar126>=0.07366888 22330 2008.9000 0.09995522
     6) predVar73< 0.05554501 5872  287.3650 0.05160082 *
     7) predVar73>=0.05554501 16458 1702.9070 0.11720740
      14) predVar205< 0.1047779 14771 1429.0370 0.10852350
        28) predVar218< 0.07134103 7919  643.0582 0.08915267
          56) predVar126< 0.1015407 4433  287.4613 0.06970449 *
          57) predVar126>=0.1015407 3486  351.7880 0.11388410 *
        29) predVar218>=0.07134103 6852  779.5731 0.13091070
          58) predVar74< 0.0797246 2785  234.9135 0.09299820 *
          59) predVar74>=0.0797246 4067  537.9154 0.15687240 *
      15) predVar205>=0.1047779 1687  263.0030 0.19324240 *
